#############################################################################
## Copyright (c) 1996, Carnegie Mellon University, Cambridge University,
## Ronald Rosenfeld and Philip Clarkson
## Version 3, Copyright (c) 2006, Carnegie Mellon University 
## Contributors includes Wen Xu, Ananlada Chotimongkol, 
## David Huggins-Daines, Arthur Chan and Alan Black 
#############################################################################
=============================================================================
===============  This file was produced by the CMU-Cambridge  ===============
===============     Statistical Language Modeling Toolkit     ===============
=============================================================================
This is a 3-gram language model, based on a vocabulary of 26 words,
  which begins "</s>", "<s>", "BIRTHDAY"...
This is an OPEN-vocabulary model (type 1)
  (OOVs were mapped to UNK, which is treated as any other vocabulary word)
Good-Turing discounting was applied.
1-gram frequency of frequency : 22 
2-gram frequency of frequency : 47 0 0 0 0 0 0 
3-gram frequency of frequency : 70 0 0 0 0 0 0 
1-gram discounting ratios : 0.92 
2-gram discounting ratios : 
3-gram discounting ratios : 
This file is in the ARPA-standard format introduced by Doug Paul.

p(wd3|wd1,wd2)= if(trigram exists)           p_3(wd1,wd2,wd3)
                else if(bigram w1,w2 exists) bo_wt_2(w1,w2)*p(wd3|wd2)
                else                         p(wd3|w2)

p(wd2|wd1)= if(bigram exists) p_2(wd1,wd2)
            else              bo_wt_1(wd1)*p_1(wd2)

All probs and back-off weights (bo_wt) are given in log10 form.

Data formats:

Beginning of data mark: \data\
ngram 1=nr            # number of 1-grams
ngram 2=nr            # number of 2-grams
ngram 3=nr            # number of 3-grams

\1-grams:
p_1     wd_1 bo_wt_1
\2-grams:
p_2     wd_1 wd_2 bo_wt_2
\3-grams:
p_3     wd_1 wd_2 wd_3 

end of data mark: \end\

\data\
ngram 1=27
ngram 2=48
ngram 3=70

\1-grams:
-1.8829 <UNK>	0.0000
-0.4834 </s>	-1.2249
-0.4834 <s>	-1.5067
-1.8829 BIRTHDAY	-0.3041
-1.8829 CHEESE	-0.3041
-1.8829 EMAIL	-0.3041
-1.8829 FACEBOOK	-0.3041
-1.8829 FIRST	-0.3041
-1.8829 HACKER	-0.3041
-1.8829 INBOX	-0.3041
-1.8829 JOKE	-0.3041
-1.5441 KNOCK	-0.5071
-1.8829 LIFE	-0.3041
-1.8829 MEANING	-0.3041
-1.8829 MUSIC	-0.3041
-1.8829 NEWS	-0.3041
-1.8829 NO	-0.3041
-1.8829 NOTIFICATION	-0.3041
-1.8829 OF	-0.3041
-1.8829 SECOND	-0.3041
-1.8829 SPOTIFY	-0.3041
-1.8829 THIRD	-0.3041
-1.8829 TIME	-0.3041
-1.8829 TODAY	-0.3041
-1.8829 TOMORROW	-0.3041
-1.8829 WEATHER	-0.3041
-1.8829 YES	0.0000

\2-grams:
-0.0177 </s> <s> -0.1825
-1.3711 <s> BIRTHDAY 0.1761
-1.3711 <s> CHEESE 0.1761
-1.3711 <s> EMAIL 0.1761
-1.3711 <s> FACEBOOK 0.1761
-1.3711 <s> FIRST 0.1761
-1.3711 <s> HACKER 0.1761
-1.3711 <s> INBOX 0.1761
-1.3711 <s> JOKE 0.1761
-1.3711 <s> KNOCK -0.0792
-1.3711 <s> LIFE 0.1761
-1.3711 <s> MEANING 0.1761
-1.3711 <s> MUSIC 0.1761
-1.3711 <s> NEWS 0.1761
-1.3711 <s> NO 0.1761
-1.3711 <s> NOTIFICATION 0.1761
-1.3711 <s> OF 0.1761
-1.3711 <s> SECOND 0.1761
-1.3711 <s> SPOTIFY 0.1761
-1.3711 <s> THIRD 0.1761
-1.3711 <s> TIME 0.1761
-1.3711 <s> TODAY 0.1761
-1.3711 <s> TOMORROW 0.1761
-1.3711 <s> WEATHER 0.1761
-0.1761 BIRTHDAY </s> 1.0969
-0.1761 CHEESE </s> 1.0969
-0.1761 EMAIL </s> 1.0969
-0.1761 FACEBOOK </s> 1.0969
-0.1761 FIRST </s> 1.0969
-0.1761 HACKER </s> 1.0969
-0.1761 INBOX </s> 1.0969
-0.1761 JOKE </s> 1.0969
-0.3979 KNOCK </s> 1.0969
-0.3979 KNOCK KNOCK -0.0792
-0.1761 LIFE </s> 1.0969
-0.1761 MEANING </s> 1.0969
-0.1761 MUSIC </s> 1.0969
-0.1761 NEWS </s> 1.0969
-0.1761 NO </s> 1.0969
-0.1761 NOTIFICATION </s> 1.0969
-0.1761 OF </s> 1.0969
-0.1761 SECOND </s> 1.0969
-0.1761 SPOTIFY </s> 1.0969
-0.1761 THIRD </s> 1.0969
-0.1761 TIME </s> 1.0969
-0.1761 TODAY </s> 1.0969
-0.1761 TOMORROW </s> 1.0969
-0.1761 WEATHER </s> 1.0969

\3-grams:
-1.3802 </s> <s> CHEESE 
-1.3802 </s> <s> EMAIL 
-1.3802 </s> <s> FACEBOOK 
-1.3802 </s> <s> FIRST 
-1.3802 </s> <s> HACKER 
-1.3802 </s> <s> INBOX 
-1.3802 </s> <s> JOKE 
-1.3802 </s> <s> KNOCK 
-1.3802 </s> <s> LIFE 
-1.3802 </s> <s> MEANING 
-1.3802 </s> <s> MUSIC 
-1.3802 </s> <s> NEWS 
-1.3802 </s> <s> NO 
-1.3802 </s> <s> NOTIFICATION 
-1.3802 </s> <s> OF 
-1.3802 </s> <s> SECOND 
-1.3802 </s> <s> SPOTIFY 
-1.3802 </s> <s> THIRD 
-1.3802 </s> <s> TIME 
-1.3802 </s> <s> TODAY 
-1.3802 </s> <s> TOMORROW 
-1.3802 </s> <s> WEATHER 
-1.3802 </s> <s> YES 
-0.3010 <s> BIRTHDAY </s> 
-0.3010 <s> CHEESE </s> 
-0.3010 <s> EMAIL </s> 
-0.3010 <s> FACEBOOK </s> 
-0.3010 <s> FIRST </s> 
-0.3010 <s> HACKER </s> 
-0.3010 <s> INBOX </s> 
-0.3010 <s> JOKE </s> 
-0.3010 <s> KNOCK KNOCK 
-0.3010 <s> LIFE </s> 
-0.3010 <s> MEANING </s> 
-0.3010 <s> MUSIC </s> 
-0.3010 <s> NEWS </s> 
-0.3010 <s> NO </s> 
-0.3010 <s> NOTIFICATION </s> 
-0.3010 <s> OF </s> 
-0.3010 <s> SECOND </s> 
-0.3010 <s> SPOTIFY </s> 
-0.3010 <s> THIRD </s> 
-0.3010 <s> TIME </s> 
-0.3010 <s> TODAY </s> 
-0.3010 <s> TOMORROW </s> 
-0.3010 <s> WEATHER </s> 
-0.3010 BIRTHDAY </s> <s> 
-0.3010 CHEESE </s> <s> 
-0.3010 EMAIL </s> <s> 
-0.3010 FACEBOOK </s> <s> 
-0.3010 FIRST </s> <s> 
-0.3010 HACKER </s> <s> 
-0.3010 INBOX </s> <s> 
-0.3010 JOKE </s> <s> 
-0.3010 KNOCK </s> <s> 
-0.3010 KNOCK KNOCK </s> 
-0.3010 LIFE </s> <s> 
-0.3010 MEANING </s> <s> 
-0.3010 MUSIC </s> <s> 
-0.3010 NEWS </s> <s> 
-0.3010 NO </s> <s> 
-0.3010 NOTIFICATION </s> <s> 
-0.3010 OF </s> <s> 
-0.3010 SECOND </s> <s> 
-0.3010 SPOTIFY </s> <s> 
-0.3010 THIRD </s> <s> 
-0.3010 TIME </s> <s> 
-0.3010 TODAY </s> <s> 
-0.3010 TOMORROW </s> <s> 
-0.3010 WEATHER </s> <s> 

\end\
