Language model created by QuickLM on Fri Aug 12 14:33:35 EDT 2016
Copyright (c) 1996-2010 Carnegie Mellon University and Alexander I. Rudnicky

The model is in standard ARPA format, designed by Doug Paul while he was at MITRE.

The code that was used to produce this language model is available in Open Source.
Please visit http://www.speech.cs.cmu.edu/tools/ for more information

The (fixed) discount mass is 0.5. The backoffs are computed using the ratio method.
This model based on a corpus of 9 sentences and 14 words

\data\
ngram 1=14
ngram 2=21
ngram 3=12

\1-grams:
-0.8239 </s> -0.3010
-0.8239 <s> -0.2304
-1.7782 ADVANCE -0.2304
-1.7782 CHEESE -0.2304
-1.7782 FLASH -0.2304
-1.7782 HELVETICA;} -0.2304
-1.7782 SELFIE -0.2304
-1.7782 \CF0 -0.2937
-1.7782 \F0\FS24 -0.2937
-1.7782 \MARGL1440\MARGR1440\VIEWW10800\VIEWH8400\VIEWKIND0 -0.2304
-1.7782 \PARD\TX720\TX1440\TX2160\TX2880\TX3600\TX4320\TX5040\TX5760\TX6480\TX7200\TX7920\TX8640\PARDIRNATURAL -0.2304
-1.7782 {\COLORTBL;\RED255\GREEN255\BLUE255;} -0.2304
-1.7782 {\FONTTBL\F0\FSWISS\FCHARSET0 -0.2937
-1.7782 {\RTF1\ANSI\ANSICPG1252\COCOARTF1348\COCOASUBRTF170 -0.2304

\2-grams:
-1.2553 <s> ADVANCE 0.0000
-1.2553 <s> CHEESE 0.0000
-1.2553 <s> FLASH 0.0000
-1.2553 <s> \F0\FS24 0.0000
-1.2553 <s> \MARGL1440\MARGR1440\VIEWW10800\VIEWH8400\VIEWKIND0 0.0000
-1.2553 <s> \PARD\TX720\TX1440\TX2160\TX2880\TX3600\TX4320\TX5040\TX5760\TX6480\TX7200\TX7920\TX8640\PARDIRNATURAL 0.0000
-1.2553 <s> {\COLORTBL;\RED255\GREEN255\BLUE255;} 0.0000
-1.2553 <s> {\FONTTBL\F0\FSWISS\FCHARSET0 0.0000
-1.2553 <s> {\RTF1\ANSI\ANSICPG1252\COCOARTF1348\COCOASUBRTF170 0.0000
-0.3010 ADVANCE </s> -0.3010
-0.3010 CHEESE </s> -0.3010
-0.3010 FLASH </s> -0.3010
-0.3010 HELVETICA;} </s> -0.3010
-0.3010 SELFIE </s> -0.3010
-0.3010 \CF0 SELFIE 0.0000
-0.3010 \F0\FS24 \CF0 0.0000
-0.3010 \MARGL1440\MARGR1440\VIEWW10800\VIEWH8400\VIEWKIND0 </s> -0.3010
-0.3010 \PARD\TX720\TX1440\TX2160\TX2880\TX3600\TX4320\TX5040\TX5760\TX6480\TX7200\TX7920\TX8640\PARDIRNATURAL </s> -0.3010
-0.3010 {\COLORTBL;\RED255\GREEN255\BLUE255;} </s> -0.3010
-0.3010 {\FONTTBL\F0\FSWISS\FCHARSET0 HELVETICA;} 0.0000
-0.3010 {\RTF1\ANSI\ANSICPG1252\COCOARTF1348\COCOASUBRTF170 </s> -0.3010

\3-grams:
-0.3010 <s> ADVANCE </s>
-0.3010 <s> CHEESE </s>
-0.3010 <s> FLASH </s>
-0.3010 <s> \F0\FS24 \CF0
-0.3010 <s> \MARGL1440\MARGR1440\VIEWW10800\VIEWH8400\VIEWKIND0 </s>
-0.3010 <s> \PARD\TX720\TX1440\TX2160\TX2880\TX3600\TX4320\TX5040\TX5760\TX6480\TX7200\TX7920\TX8640\PARDIRNATURAL </s>
-0.3010 <s> {\COLORTBL;\RED255\GREEN255\BLUE255;} </s>
-0.3010 <s> {\FONTTBL\F0\FSWISS\FCHARSET0 HELVETICA;}
-0.3010 <s> {\RTF1\ANSI\ANSICPG1252\COCOARTF1348\COCOASUBRTF170 </s>
-0.3010 \CF0 SELFIE </s>
-0.3010 \F0\FS24 \CF0 SELFIE
-0.3010 {\FONTTBL\F0\FSWISS\FCHARSET0 HELVETICA;} </s>

\end\
