Language model created by QuickLM on Fri Jul 15 16:18:28 EDT 2016
Copyright (c) 1996-2010 Carnegie Mellon University and Alexander I. Rudnicky

The model is in standard ARPA format, designed by Doug Paul while he was at MITRE.

The code that was used to produce this language model is available in Open Source.
Please visit http://www.speech.cs.cmu.edu/tools/ for more information

The (fixed) discount mass is 0.5. The backoffs are computed using the ratio method.
This model based on a corpus of 10 sentences and 22 words

\data\
ngram 1=22
ngram 2=31
ngram 3=21

\1-grams:
-0.9138 </s> -0.3010
-0.9138 <s> -0.2445
-1.9138 A -0.2957
-1.9138 CHARGE -0.2903
-1.9138 CHEESE\ -0.2445
-1.9138 FILM} -0.2445
-1.9138 FLASH\ -0.2445
-1.9138 HELVETICA;} -0.2445
-1.9138 JASPER\ -0.2445
-1.9138 LETS -0.2957
-1.9138 SAY -0.2957
-1.9138 SELFIE\ -0.2445
-1.9138 TAKE -0.2957
-1.6128 THE -0.2903
-1.9138 WIND -0.2903
-1.9138 \CF0 -0.2957
-1.9138 \F0\FS24 -0.2957
-1.9138 \MARGL1440\MARGR1440\VIEWW10800\VIEWH8400\VIEWKIND0 -0.2445
-1.9138 \PARD\TX720\TX1440\TX2160\TX2880\TX3600\TX4320\TX5040\TX5760\TX6480\TX7200\TX7920\TX8640\PARDIRNATURAL -0.2445
-1.9138 {\COLORTBL;\RED255\GREEN255\BLUE255;} -0.2445
-1.9138 {\FONTTBL\F0\FSWISS\FCHARSET0 -0.2957
-1.9138 {\RTF1\ANSI\ANSICPG1252\COCOARTF1348\COCOASUBRTF170 -0.2445

\2-grams:
-1.3010 <s> CHARGE 0.0000
-1.3010 <s> LETS 0.0000
-1.3010 <s> SAY 0.0000
-1.3010 <s> WIND 0.0000
-1.3010 <s> \F0\FS24 0.0000
-1.3010 <s> \MARGL1440\MARGR1440\VIEWW10800\VIEWH8400\VIEWKIND0 0.0000
-1.3010 <s> \PARD\TX720\TX1440\TX2160\TX2880\TX3600\TX4320\TX5040\TX5760\TX6480\TX7200\TX7920\TX8640\PARDIRNATURAL 0.0000
-1.3010 <s> {\COLORTBL;\RED255\GREEN255\BLUE255;} 0.0000
-1.3010 <s> {\FONTTBL\F0\FSWISS\FCHARSET0 0.0000
-1.3010 <s> {\RTF1\ANSI\ANSICPG1252\COCOARTF1348\COCOASUBRTF170 0.0000
-0.3010 A SELFIE\ 0.0000
-0.3010 CHARGE THE -0.1761
-0.3010 CHEESE\ </s> -0.3010
-0.3010 FILM} </s> -0.3010
-0.3010 FLASH\ </s> -0.3010
-0.3010 HELVETICA;} </s> -0.3010
-0.3010 JASPER\ </s> -0.3010
-0.3010 LETS TAKE 0.0000
-0.3010 SAY CHEESE\ 0.0000
-0.3010 SELFIE\ </s> -0.3010
-0.3010 TAKE A 0.0000
-0.6021 THE FILM} 0.0000
-0.6021 THE FLASH\ 0.0000
-0.3010 WIND THE -0.1761
-0.3010 \CF0 JASPER\ 0.0000
-0.3010 \F0\FS24 \CF0 0.0000
-0.3010 \MARGL1440\MARGR1440\VIEWW10800\VIEWH8400\VIEWKIND0 </s> -0.3010
-0.3010 \PARD\TX720\TX1440\TX2160\TX2880\TX3600\TX4320\TX5040\TX5760\TX6480\TX7200\TX7920\TX8640\PARDIRNATURAL </s> -0.3010
-0.3010 {\COLORTBL;\RED255\GREEN255\BLUE255;} </s> -0.3010
-0.3010 {\FONTTBL\F0\FSWISS\FCHARSET0 HELVETICA;} 0.0000
-0.3010 {\RTF1\ANSI\ANSICPG1252\COCOARTF1348\COCOASUBRTF170 </s> -0.3010

\3-grams:
-0.3010 <s> CHARGE THE
-0.3010 <s> LETS TAKE
-0.3010 <s> SAY CHEESE\
-0.3010 <s> WIND THE
-0.3010 <s> \F0\FS24 \CF0
-0.3010 <s> \MARGL1440\MARGR1440\VIEWW10800\VIEWH8400\VIEWKIND0 </s>
-0.3010 <s> \PARD\TX720\TX1440\TX2160\TX2880\TX3600\TX4320\TX5040\TX5760\TX6480\TX7200\TX7920\TX8640\PARDIRNATURAL </s>
-0.3010 <s> {\COLORTBL;\RED255\GREEN255\BLUE255;} </s>
-0.3010 <s> {\FONTTBL\F0\FSWISS\FCHARSET0 HELVETICA;}
-0.3010 <s> {\RTF1\ANSI\ANSICPG1252\COCOARTF1348\COCOASUBRTF170 </s>
-0.3010 A SELFIE\ </s>
-0.3010 CHARGE THE FLASH\
-0.3010 LETS TAKE A
-0.3010 SAY CHEESE\ </s>
-0.3010 TAKE A SELFIE\
-0.3010 THE FILM} </s>
-0.3010 THE FLASH\ </s>
-0.3010 WIND THE FILM}
-0.3010 \CF0 JASPER\ </s>
-0.3010 \F0\FS24 \CF0 JASPER\
-0.3010 {\FONTTBL\F0\FSWISS\FCHARSET0 HELVETICA;} </s>

\end\
